digraph Tree {
node [shape=box, style="rounded", color="black", fontname=helvetica] ;
edge [fontname=helvetica] ;
0 [label="temp_1 <= 59.5\nmse = 145.5\nsamples = 165\nvalue = 62.4"] ;
1 [label="temp_1 <= 47.5\nmse = 47.6\nsamples = 68\nvalue = 51.2"] ;
0 -> 1 [labeldistance=2.5, labelangle=45, headlabel="True"] ;
2 [label="temp_1 <= 40.5\nmse = 20.2\nsamples = 14\nvalue = 41.6"] ;
1 -> 2 ;
3 [label="mse = 3.8\nsamples = 4\nvalue = 37.4"] ;
2 -> 3 ;
4 [label="mse = 10.4\nsamples = 10\nvalue = 44.6"] ;
2 -> 4 ;
5 [label="average <= 50.8\nmse = 20.3\nsamples = 54\nvalue = 54.1"] ;
1 -> 5 ;
6 [label="mse = 10.1\nsamples = 31\nvalue = 51.5"] ;
5 -> 6 ;
7 [label="mse = 13.4\nsamples = 23\nvalue = 57.4"] ;
5 -> 7 ;
8 [label="temp_1 <= 70.5\nmse = 68.1\nsamples = 97\nvalue = 70.1"] ;
0 -> 8 [labeldistance=2.5, labelangle=-45, headlabel="False"] ;
9 [label="average <= 64.8\nmse = 29.1\nsamples = 47\nvalue = 64.7"] ;
8 -> 9 ;
10 [label="mse = 27.4\nsamples = 24\nvalue = 62.0"] ;
9 -> 10 ;
11 [label="mse = 16.9\nsamples = 23\nvalue = 67.3"] ;
9 -> 11 ;
12 [label="temp_1 <= 76.5\nmse = 45.4\nsamples = 50\nvalue = 75.9"] ;
8 -> 12 ;
13 [label="mse = 21.7\nsamples = 28\nvalue = 72.9"] ;
12 -> 13 ;
14 [label="mse = 44.9\nsamples = 22\nvalue = 80.9"] ;
12 -> 14 ;
}