digraph Tree {
node [shape=box, style="rounded", color="black", fontname=helvetica] ;
edge [fontname=helvetica] ;
0 [label="temp_1 <= 59.5\nmse = 130.7\nsamples = 172\nvalue = 62.5"] ;
1 [label="average <= 46.9\nmse = 40.3\nsamples = 72\nvalue = 52.2"] ;
0 -> 1 [labeldistance=2.5, labelangle=45, headlabel="True"] ;
2 [label="temp_1 <= 46.0\nmse = 12.1\nsamples = 17\nvalue = 43.7"] ;
1 -> 2 ;
3 [label="mse = 8.6\nsamples = 13\nvalue = 42.4"] ;
2 -> 3 ;
4 [label="mse = 4.0\nsamples = 4\nvalue = 47.4"] ;
2 -> 4 ;
5 [label="temp_1 <= 56.5\nmse = 17.8\nsamples = 55\nvalue = 55.0"] ;
1 -> 5 ;
6 [label="mse = 8.0\nsamples = 39\nvalue = 53.2"] ;
5 -> 6 ;
7 [label="mse = 13.3\nsamples = 16\nvalue = 59.7"] ;
5 -> 7 ;
8 [label="temp_1 <= 70.5\nmse = 54.8\nsamples = 100\nvalue = 70.5"] ;
0 -> 8 [labeldistance=2.5, labelangle=-45, headlabel="False"] ;
9 [label="average <= 58.2\nmse = 25.8\nsamples = 47\nvalue = 65.7"] ;
8 -> 9 ;
10 [label="mse = 23.8\nsamples = 14\nvalue = 61.9"] ;
9 -> 10 ;
11 [label="mse = 20.3\nsamples = 33\nvalue = 66.9"] ;
9 -> 11 ;
12 [label="average <= 76.6\nmse = 41.8\nsamples = 53\nvalue = 74.7"] ;
8 -> 12 ;
13 [label="mse = 26.1\nsamples = 39\nvalue = 72.8"] ;
12 -> 13 ;
14 [label="mse = 43.4\nsamples = 14\nvalue = 80.5"] ;
12 -> 14 ;
}